%YAML:1.0
---
opencv_ml_knn:
   format: 3
   is_classifier: 1
   default_k: 10
   samples: !!opencv-matrix
      rows: 7
      cols: 100
      dt: f
      data: [ 255., 0., 0., 0., 0., 0., 0., 0., 0., 0., 255., 255., 0.,
          0., 0., 0., 0., 0., 0., 0., 255., 255., 255., 0., 0., 0., 0.,
          0., 0., 0., 255., 255., 255., 255., 0., 0., 0., 0., 0., 0.,
          255., 255., 255., 255., 255., 0., 0., 0., 0., 0., 255., 255.,
          255., 255., 255., 255., 0., 0., 0., 0., 255., 255., 255., 255.,
          255., 255., 255., 0., 0., 0., 255., 255., 255., 255., 255.,
          255., 255., 255., 0., 0., 255., 255., 255., 255., 255., 255.,
          255., 255., 255., 0., 255., 255., 255., 255., 255., 255., 255.,
          255., 255., 255., 0., 0., 0., 0., 255., 255., 0., 0., 0., 0.,
          0., 10., 255., 255., 255., 255., 255., 255., 10., 0., 255.,
          255., 255., 255., 255., 255., 255., 255., 255., 255., 255.,
          255., 255., 255., 255., 255., 255., 255., 255., 255., 255.,
          255., 255., 255., 255., 255., 255., 255., 255., 255., 255.,
          255., 255., 255., 255., 255., 255., 255., 255., 255., 255.,
          255., 255., 255., 255., 255., 255., 255., 255., 255., 255.,
          255., 255., 255., 255., 255., 255., 255., 255., 255., 0., 92.,
          255., 255., 255., 255., 255., 255., 92., 0., 0., 0., 0., 102.,
          255., 255., 102., 0., 0., 0., 0., 0., 0., 0., 204., 204., 0.,
          0., 0., 0., 0., 0., 0., 102., 255., 255., 102., 0., 0., 0.,
          255., 255., 255., 255., 255., 255., 255., 255., 255., 255.,
          102., 255., 255., 255., 255., 255., 255., 255., 255., 102., 0.,
          255., 255., 255., 255., 255., 255., 255., 255., 0., 0., 255.,
          255., 255., 255., 255., 255., 255., 255., 0., 127., 255., 255.,
          255., 255., 255., 255., 255., 255., 127., 255., 255., 255.,
          255., 255., 255., 255., 255., 255., 255., 0., 0., 0., 0., 255.,
          255., 0., 0., 0., 0., 0., 0., 0., 0., 127., 204., 0., 0., 0.,
          0., 0., 0., 0., 105., 255., 255., 255., 255., 182., 0., 0.,
          255., 255., 255., 255., 255., 255., 255., 255., 41., 0., 255.,
          255., 255., 255., 255., 255., 255., 255., 255., 255., 255.,
          255., 255., 255., 255., 255., 255., 255., 255., 255., 255.,
          255., 255., 255., 255., 255., 255., 255., 255., 255., 255.,
          255., 255., 255., 255., 255., 255., 255., 124., 188., 255.,
          255., 255., 255., 255., 255., 255., 242., 0., 0., 182., 255.,
          255., 255., 255., 226., 191., 0., 0., 0., 242., 255., 0., 64.,
          226., 0., 0., 0., 0., 0., 255., 0., 0., 0., 0., 0., 0., 0., 0.,
          116., 255., 255., 255., 255., 255., 255., 255., 255., 116.,
          255., 255., 255., 255., 255., 255., 255., 255., 255., 255.,
          255., 255., 255., 255., 255., 255., 255., 255., 255., 255.,
          255., 255., 255., 255., 255., 255., 255., 255., 255., 255.,
          255., 255., 255., 255., 255., 255., 255., 255., 255., 255.,
          255., 255., 255., 255., 255., 255., 255., 255., 255., 255.,
          255., 255., 255., 255., 255., 255., 255., 255., 255., 255.,
          255., 255., 255., 255., 255., 255., 255., 255., 255., 255., 0.,
          255., 255., 255., 255., 255., 255., 255., 255., 0., 0., 0.,
          255., 174., 0., 0., 0., 0., 0., 0., 0., 0., 25., 255., 76., 0.,
          0., 0., 0., 0., 51., 255., 255., 255., 255., 0., 0., 0., 0.,
          0., 0., 255., 255., 255., 255., 255., 0., 0., 0., 0., 0., 0.,
          102., 255., 255., 255., 0., 0., 0., 0., 0., 0., 64., 255.,
          255., 255., 255., 0., 0., 0., 0., 0., 0., 0., 255., 255., 255.,
          255., 0., 0., 0., 0., 0., 0., 0., 255., 255., 102., 0., 0., 0.,
          0., 0., 0., 0., 191., 255., 255., 0., 0., 0., 0., 0., 0., 0.,
          0., 0., 255., 255., 0., 0., 0., 0., 0., 0., 0., 0., 0., 0.,
          255., 0., 255., 255., 249., 0., 0., 249., 255., 255., 0., 255.,
          255., 255., 255., 224., 224., 255., 255., 255., 255., 255.,
          255., 255., 255., 255., 255., 255., 255., 255., 255., 255.,
          255., 255., 255., 255., 255., 255., 255., 255., 255., 255.,
          255., 255., 255., 255., 255., 255., 255., 255., 255., 36.,
          255., 255., 255., 255., 255., 255., 255., 255., 38., 0., 255.,
          255., 255., 255., 255., 255., 255., 255., 0., 0., 0., 255.,
          255., 255., 255., 255., 255., 0., 0., 0., 0., 0., 255., 255.,
          255., 255., 0., 0., 0., 0., 0., 0., 0., 255., 255., 0., 0., 0.,
          0. ]
   responses: !!opencv-matrix
      rows: 7
      cols: 1
      dt: f
      data: [ 2., 3., 0., 4., 1., 5., 6. ]
